Language model created by QuickLM on Fri Sep 29 18:26:31 EDT 2017
Copyright (c) 1996-2010 Carnegie Mellon University and Alexander I. Rudnicky

The model is in standard ARPA format, designed by Doug Paul while he was at MITRE.

The code that was used to produce this language model is available in Open Source.
Please visit http://www.speech.cs.cmu.edu/tools/ for more information

The (fixed) discount mass is 0.5. The backoffs are computed using the ratio method.
This model based on a corpus of 24 sentences and 25 words

\data\
ngram 1=25
ngram 2=46
ngram 3=23

\1-grams:
-0.7782 </s> -0.3010
-0.7782 <s> -0.2218
-2.1584 AIVA -0.2218
-2.1584 ALL -0.2218
-2.1584 CHROME -0.2218
-1.8573 CLOSE -0.2218
-2.1584 COMMAND -0.2218
-2.1584 DRIVE -0.2218
-2.1584 EXIT -0.2218
-2.1584 EXPLORER -0.2218
-2.1584 FILE -0.2218
-2.1584 FILES -0.2218
-2.1584 GO -0.2218
-2.1584 GOOGLE -0.2218
-2.1584 MAIL -0.2218
-2.1584 MY -0.2218
-2.1584 NETFLIX -0.2218
-2.1584 OPEN -0.2218
-2.1584 PROMPT -0.2218
-2.1584 PULL -0.2218
-2.1584 TERMINAL -0.2218
-2.1584 THE -0.2218
-2.1584 TO -0.2218
-2.1584 UP -0.2218
-2.1584 YOUTUBE -0.2218

\2-grams:
-1.6812 <s> AIVA 0.0000
-1.6812 <s> ALL 0.0000
-1.6812 <s> CHROME 0.0000
-1.3802 <s> CLOSE 0.0000
-1.6812 <s> COMMAND 0.0000
-1.6812 <s> DRIVE 0.0000
-1.6812 <s> EXIT 0.0000
-1.6812 <s> EXPLORER 0.0000
-1.6812 <s> FILE 0.0000
-1.6812 <s> FILES 0.0000
-1.6812 <s> GO 0.0000
-1.6812 <s> GOOGLE 0.0000
-1.6812 <s> MAIL 0.0000
-1.6812 <s> MY 0.0000
-1.6812 <s> NETFLIX 0.0000
-1.6812 <s> OPEN 0.0000
-1.6812 <s> PROMPT 0.0000
-1.6812 <s> PULL 0.0000
-1.6812 <s> TERMINAL 0.0000
-1.6812 <s> THE 0.0000
-1.6812 <s> TO 0.0000
-1.6812 <s> UP 0.0000
-1.6812 <s> YOUTUBE 0.0000
-0.3010 AIVA </s> -0.3010
-0.3010 ALL </s> -0.3010
-0.3010 CHROME </s> -0.3010
-0.3010 CLOSE </s> -0.3010
-0.3010 COMMAND </s> -0.3010
-0.3010 DRIVE </s> -0.3010
-0.3010 EXIT </s> -0.3010
-0.3010 EXPLORER </s> -0.3010
-0.3010 FILE </s> -0.3010
-0.3010 FILES </s> -0.3010
-0.3010 GO </s> -0.3010
-0.3010 GOOGLE </s> -0.3010
-0.3010 MAIL </s> -0.3010
-0.3010 MY </s> -0.3010
-0.3010 NETFLIX </s> -0.3010
-0.3010 OPEN </s> -0.3010
-0.3010 PROMPT </s> -0.3010
-0.3010 PULL </s> -0.3010
-0.3010 TERMINAL </s> -0.3010
-0.3010 THE </s> -0.3010
-0.3010 TO </s> -0.3010
-0.3010 UP </s> -0.3010
-0.3010 YOUTUBE </s> -0.3010

\3-grams:
-0.3010 <s> AIVA </s>
-0.3010 <s> ALL </s>
-0.3010 <s> CHROME </s>
-0.3010 <s> CLOSE </s>
-0.3010 <s> COMMAND </s>
-0.3010 <s> DRIVE </s>
-0.3010 <s> EXIT </s>
-0.3010 <s> EXPLORER </s>
-0.3010 <s> FILE </s>
-0.3010 <s> FILES </s>
-0.3010 <s> GO </s>
-0.3010 <s> GOOGLE </s>
-0.3010 <s> MAIL </s>
-0.3010 <s> MY </s>
-0.3010 <s> NETFLIX </s>
-0.3010 <s> OPEN </s>
-0.3010 <s> PROMPT </s>
-0.3010 <s> PULL </s>
-0.3010 <s> TERMINAL </s>
-0.3010 <s> THE </s>
-0.3010 <s> TO </s>
-0.3010 <s> UP </s>
-0.3010 <s> YOUTUBE </s>

\end\
