Language model created by QuickLM on Sun Sep 24 20:47:21 EDT 2017
Copyright (c) 1996-2010 Carnegie Mellon University and Alexander I. Rudnicky

The model is in standard ARPA format, designed by Doug Paul while he was at MITRE.

The code that was used to produce this language model is available in Open Source.
Please visit http://www.speech.cs.cmu.edu/tools/ for more information

The (fixed) discount mass is 0.5. The backoffs are computed using the ratio method.
This model based on a corpus of 37 sentences and 39 words

\data\
ngram 1=39
ngram 2=74
ngram 3=37

\1-grams:
-0.7782 </s> -0.3010
-0.7782 <s> -0.2218
-2.3464 AIVA -0.2218
-2.3464 ALL -0.2218
-2.3464 AM -0.2218
-2.3464 ARE -0.2218
-2.3464 BROWSER -0.2218
-2.3464 CHROME -0.2218
-2.3464 CLOSE -0.2218
-2.3464 COMMAND -0.2218
-2.3464 CRAIG -0.2218
-2.3464 END -0.2218
-2.3464 ENGINE -0.2218
-2.3464 EXIT -0.2218
-2.3464 EXPLORER -0.2218
-2.3464 FILE -0.2218
-2.3464 FILES -0.2218
-2.3464 GOOGLE -0.2218
-2.3464 HELLO -0.2218
-2.3464 HEY -0.2218
-2.3464 HI -0.2218
-2.3464 HOW -0.2218
-2.3464 I -0.2218
-2.3464 IN -0.2218
-2.3464 MY -0.2218
-2.3464 NEVERMIND -0.2218
-2.3464 ON -0.2218
-2.3464 OPEN -0.2218
-2.3464 PROMPT -0.2218
-2.3464 PULL -0.2218
-2.3464 SEARCH -0.2218
-2.3464 SETTINGS -0.2218
-2.3464 TERMINAL -0.2218
-2.3464 TERMINATE -0.2218
-2.3464 TEST -0.2218
-2.3464 THE -0.2218
-2.3464 UP -0.2218
-2.3464 WHO -0.2218
-2.3464 YOU -0.2218

\2-grams:
-1.8692 <s> AIVA 0.0000
-1.8692 <s> ALL 0.0000
-1.8692 <s> AM 0.0000
-1.8692 <s> ARE 0.0000
-1.8692 <s> BROWSER 0.0000
-1.8692 <s> CHROME 0.0000
-1.8692 <s> CLOSE 0.0000
-1.8692 <s> COMMAND 0.0000
-1.8692 <s> CRAIG 0.0000
-1.8692 <s> END 0.0000
-1.8692 <s> ENGINE 0.0000
-1.8692 <s> EXIT 0.0000
-1.8692 <s> EXPLORER 0.0000
-1.8692 <s> FILE 0.0000
-1.8692 <s> FILES 0.0000
-1.8692 <s> GOOGLE 0.0000
-1.8692 <s> HELLO 0.0000
-1.8692 <s> HEY 0.0000
-1.8692 <s> HI 0.0000
-1.8692 <s> HOW 0.0000
-1.8692 <s> I 0.0000
-1.8692 <s> IN 0.0000
-1.8692 <s> MY 0.0000
-1.8692 <s> NEVERMIND 0.0000
-1.8692 <s> ON 0.0000
-1.8692 <s> OPEN 0.0000
-1.8692 <s> PROMPT 0.0000
-1.8692 <s> PULL 0.0000
-1.8692 <s> SEARCH 0.0000
-1.8692 <s> SETTINGS 0.0000
-1.8692 <s> TERMINAL 0.0000
-1.8692 <s> TERMINATE 0.0000
-1.8692 <s> TEST 0.0000
-1.8692 <s> THE 0.0000
-1.8692 <s> UP 0.0000
-1.8692 <s> WHO 0.0000
-1.8692 <s> YOU 0.0000
-0.3010 AIVA </s> -0.3010
-0.3010 ALL </s> -0.3010
-0.3010 AM </s> -0.3010
-0.3010 ARE </s> -0.3010
-0.3010 BROWSER </s> -0.3010
-0.3010 CHROME </s> -0.3010
-0.3010 CLOSE </s> -0.3010
-0.3010 COMMAND </s> -0.3010
-0.3010 CRAIG </s> -0.3010
-0.3010 END </s> -0.3010
-0.3010 ENGINE </s> -0.3010
-0.3010 EXIT </s> -0.3010
-0.3010 EXPLORER </s> -0.3010
-0.3010 FILE </s> -0.3010
-0.3010 FILES </s> -0.3010
-0.3010 GOOGLE </s> -0.3010
-0.3010 HELLO </s> -0.3010
-0.3010 HEY </s> -0.3010
-0.3010 HI </s> -0.3010
-0.3010 HOW </s> -0.3010
-0.3010 I </s> -0.3010
-0.3010 IN </s> -0.3010
-0.3010 MY </s> -0.3010
-0.3010 NEVERMIND </s> -0.3010
-0.3010 ON </s> -0.3010
-0.3010 OPEN </s> -0.3010
-0.3010 PROMPT </s> -0.3010
-0.3010 PULL </s> -0.3010
-0.3010 SEARCH </s> -0.3010
-0.3010 SETTINGS </s> -0.3010
-0.3010 TERMINAL </s> -0.3010
-0.3010 TERMINATE </s> -0.3010
-0.3010 TEST </s> -0.3010
-0.3010 THE </s> -0.3010
-0.3010 UP </s> -0.3010
-0.3010 WHO </s> -0.3010
-0.3010 YOU </s> -0.3010

\3-grams:
-0.3010 <s> AIVA </s>
-0.3010 <s> ALL </s>
-0.3010 <s> AM </s>
-0.3010 <s> ARE </s>
-0.3010 <s> BROWSER </s>
-0.3010 <s> CHROME </s>
-0.3010 <s> CLOSE </s>
-0.3010 <s> COMMAND </s>
-0.3010 <s> CRAIG </s>
-0.3010 <s> END </s>
-0.3010 <s> ENGINE </s>
-0.3010 <s> EXIT </s>
-0.3010 <s> EXPLORER </s>
-0.3010 <s> FILE </s>
-0.3010 <s> FILES </s>
-0.3010 <s> GOOGLE </s>
-0.3010 <s> HELLO </s>
-0.3010 <s> HEY </s>
-0.3010 <s> HI </s>
-0.3010 <s> HOW </s>
-0.3010 <s> I </s>
-0.3010 <s> IN </s>
-0.3010 <s> MY </s>
-0.3010 <s> NEVERMIND </s>
-0.3010 <s> ON </s>
-0.3010 <s> OPEN </s>
-0.3010 <s> PROMPT </s>
-0.3010 <s> PULL </s>
-0.3010 <s> SEARCH </s>
-0.3010 <s> SETTINGS </s>
-0.3010 <s> TERMINAL </s>
-0.3010 <s> TERMINATE </s>
-0.3010 <s> TEST </s>
-0.3010 <s> THE </s>
-0.3010 <s> UP </s>
-0.3010 <s> WHO </s>
-0.3010 <s> YOU </s>

\end\
